0.6618979166029627
0.34089404786530814
0.17382740808488525
0.8636980536505622
0.7807729868606362
0.1424697888179173
0.8411495709763877
0.3623547658311978
0.5298149552922864
0.4719111350461343
0.7971297326727018
0.45774660457661215
0.6945157094041042
0.31536496776318873
0.4495008833237463
-0.22710604241071417
0.41392192138373624
0.15187663086419537
-0.5395004184889739
0.3819500628616364
0.099544251128588
0.38589337359908155
-0.3590347732018581
-0.13634159887899
-0.11476533727698318
0.17154562569001255
0.21514785054128052
0.005501568476710066
0.26224644109078826
0.16792356929566385
-0.2460691676755312
-0.21259872367517177
0.19897710321728565
0.07594929048472371
0.3870562514797618
-0.08140276191408359
-0.08746771796560227
0.07608240615949297
0.3526346995380221
0.35206712054560035
0.419069709084031
-0.19434369277083383
0.2169991042699935
-0.34751625985923634
-0.2859119038403026
-0.2790030241303895
0.12925022085482082
0.264140044372776
-0.5002930750033899
0.2521813864600189
-0.14548674030328432
-0.23945073214844118
-0.3103912619355644
0.202383778583847
-0.5170318037959307
0.3568364804404755
0.05864569440560394
0.2613757823076213
-0.4434333730345899
0.1243860867807148
-0.22562258460730697
0.19551053265520232
0.2856254111592082
-0.26080296969589656
0.3616368975290019
-0.21207749325312922
0.06459106004570556
-0.3254792687972336
-0.13153208899349525
0.08629367991259898
-0.17512558079141335
0.12492710337660666
0.07109869636880634
0.39173878281914104
-0.07830931733050761
-0.09233313861591019
0.22803403675326536
-0.43110054621976307
-0.2861408066158864
-0.4954726983244247
0.27538051510719136
-0.0638850356397491
0.0195452948957096
-0.11113988566574298
0.24339844477329262
-0.2811634614883651
-0.1632472153784579
-0.4144145803870917
0.20298323411606997
0.24133686146434088
-0.48028591180086794
0.5861256657853084
0.19453768546231576
0.9295339273707793
-0.7959982096492578
-0.33780957276528417
0.2880930759049779
0.11558155203272402
